const float net0_conv0_weight[4][1][3][3] = {{{{ 0.95563996, 1.2166824 , 0.28075194},
   { 0.90093243, 1.3497957 , 0.46268755},
   { 1.1943649 , 0.8195925 , 0.17118843}}},


 {{{-0.08116346,-0.27674875,-0.13991104},
   { 0.15875776,-0.07857126,-0.02316051},
   {-0.15578943,-0.15340842,-0.24083924}}},


 {{{ 0.67207015, 1.473639  , 1.419888  },
   {-0.7215625 ,-0.42531627,-0.3039675 },
   {-0.91470206,-1.1892002 ,-0.9613761 }}},


 {{{ 0.03268991,-0.7494703 ,-0.49079278},
   { 0.65640396,-0.21793708,-0.55929554},
   { 1.1314447 , 1.2642323 , 1.3316647 }}}};
const float net0_conv0_bias[4] = { 0.00052048,-0.01096506, 0.07103206,-0.19247572};
const float net0_conv1_weight[8][4][3][3] = {{{{-1.16406024e-01,-5.35718977e-01, 2.38732502e-01},
   {-1.85564645e-02, 4.20011103e-01, 6.82197392e-01},
   {-1.62934735e-01, 4.30895895e-01, 1.29231378e-01}},

  {{ 1.10443749e-01, 7.86532536e-02,-1.26729578e-01},
   { 4.11301851e-02, 1.73922673e-01, 1.54985309e-01},
   { 1.06158718e-01,-4.53425050e-02, 1.61053404e-01}},

  {{ 6.54002607e-01, 3.53090376e-01,-5.17260611e-01},
   { 1.10572070e-01,-3.27204674e-01,-1.07798263e-01},
   {-5.91670051e-02,-4.11632836e-01, 3.06263268e-02}},

  {{ 2.27870911e-01,-6.39996529e-02, 5.56879751e-02},
   { 4.80432585e-02,-3.58255744e-01, 7.60406069e-03},
   {-2.85204023e-01,-2.89475024e-01, 3.59371662e-01}}},


 {{{ 4.48321164e-01,-4.12697494e-01, 6.91405952e-01},
   { 3.20835471e-01,-2.95924574e-01, 3.51260543e-01},
   { 1.45127565e-01, 4.59536880e-01, 9.67701748e-02}},

  {{-1.63845137e-01, 2.45231148e-02,-3.81603129e-02},
   {-9.05269943e-03, 1.18787766e-01, 7.02198148e-02},
   {-2.41352953e-02,-2.42904504e-03, 1.44767970e-01}},

  {{-4.69196975e-01,-3.94888222e-01,-7.60301113e-01},
   {-1.29287109e-01,-3.11350673e-01,-1.12603009e-01},
   { 1.69079050e-01, 1.55877694e-01, 8.05529892e-01}},

  {{ 2.14640081e-01,-1.10897258e-01,-1.81423519e-02},
   { 6.98082373e-02,-1.15422467e-02,-9.16958898e-02},
   {-1.23564392e-01, 2.72419155e-01,-1.94411812e-04}}},


 {{{ 1.32107120e-02,-5.24108671e-03, 5.64482510e-01},
   {-1.73667625e-01,-2.03865439e-01,-6.33979976e-01},
   { 8.12616199e-02,-1.06011093e-01, 5.04466236e-01}},

  {{ 1.54303044e-01,-5.47091588e-02,-1.09250568e-01},
   { 6.60933107e-02, 9.02675539e-02,-1.31678775e-01},
   {-4.03442346e-02,-2.38979012e-02,-1.68427616e-01}},

  {{ 7.18350708e-02, 3.36597532e-01, 4.11964983e-01},
   { 3.12430989e-02, 1.50423482e-01, 3.27402353e-01},
   {-1.26280621e-01, 4.76121038e-01, 2.40620598e-01}},

  {{ 5.21575660e-03,-1.84896037e-01,-2.57924318e-01},
   { 9.58473014e-04, 4.17466104e-01, 4.23695087e-01},
   { 2.40804806e-01,-1.47110477e-01, 2.43984640e-01}}},


 {{{ 1.90015018e-01,-1.38539329e-01,-3.96896094e-01},
   {-2.56433725e-01, 7.88688242e-01, 1.41296955e-02},
   {-1.96044207e-01, 6.23457968e-01,-2.31264740e-01}},

  {{ 1.92011490e-01,-7.44498670e-02, 7.98038095e-02},
   { 1.85673222e-01,-1.49550527e-01,-8.99429545e-02},
   { 1.03401229e-01, 1.95334423e-02, 9.87009890e-03}},

  {{-2.01355100e-01,-1.79144636e-01, 8.55037645e-02},
   { 6.63632751e-01,-4.63086933e-01,-1.81810036e-01},
   {-2.81573892e-01,-1.92794055e-01,-3.07814360e-01}},

  {{ 1.30639398e+00, 7.69561887e-01, 3.25868726e-02},
   {-1.59583390e-01,-1.30459249e-01, 2.38711998e-01},
   { 3.98646921e-01,-1.08423889e-01,-1.41566582e-02}}},


 {{{ 1.53827429e-01, 3.34347427e-01, 2.82290965e-01},
   { 3.90475988e-01,-3.80872548e-01,-2.71303326e-01},
   { 4.78918925e-02, 2.42270231e-01, 7.28761435e-01}},

  {{ 6.15217127e-02,-9.62918475e-02, 1.33422827e-02},
   {-1.88230183e-02,-2.00547650e-01, 1.61915854e-01},
   { 1.78555354e-01, 1.88446969e-01, 2.25646105e-02}},

  {{-2.39202425e-01,-5.75174391e-02, 8.06630790e-01},
   {-1.82706058e-01, 3.27034667e-02,-1.86575100e-01},
   {-3.31334919e-01,-2.48738840e-01,-2.71125942e-01}},

  {{-8.04779455e-02, 4.93847430e-01, 2.24366914e-02},
   { 8.24950337e-02, 3.31071645e-01, 2.98308134e-01},
   { 5.80437005e-01, 4.14718986e-01,-2.82722801e-01}}},


 {{{ 1.39349326e-01, 6.39220715e-01, 5.61286844e-02},
   {-1.13343634e-01,-9.56365764e-02, 6.32601008e-02},
   {-2.66867876e-01,-3.71767610e-01, 2.02708542e-01}},

  {{ 9.63700116e-02,-4.74907011e-02, 4.39555794e-02},
   { 8.96492153e-02, 5.09553496e-03,-4.14746115e-03},
   { 3.27771753e-02,-7.80727714e-02, 1.94518581e-01}},

  {{-1.59149811e-01, 1.33861467e-01,-8.57672542e-02},
   {-1.51663199e-01,-1.45943865e-01, 2.03514636e-01},
   { 7.07900822e-01, 8.15553546e-01, 4.37544405e-01}},

  {{-7.21340105e-02, 4.24371362e-01, 1.84341684e-01},
   {-1.72043994e-01, 4.29339617e-01,-5.06790765e-02},
   { 2.49822378e-01, 3.80765200e-02,-4.59238976e-01}}},


 {{{-3.74864459e-01, 1.23558968e-01,-3.43175046e-03},
   { 2.05595046e-02, 1.20573723e+00,-4.15346742e-01},
   { 1.76587805e-01, 5.33364654e-01,-3.27552021e-01}},

  {{-8.41181446e-03,-1.86376974e-01,-1.49073958e-01},
   {-1.69174254e-01,-5.86179532e-02,-8.09533894e-02},
   {-8.79111215e-02, 8.32813457e-02,-1.26127377e-01}},

  {{-3.23558480e-01,-5.86047709e-01, 9.19472612e-03},
   {-6.05904758e-01,-8.92302811e-01, 1.97025433e-01},
   {-5.18449426e-01,-3.32225561e-01, 2.07721069e-03}},

  {{-1.66916817e-01, 1.19644338e-02, 8.23062658e-02},
   {-4.34153557e-01,-3.49609017e-01, 1.30274994e-02},
   {-7.12930441e-01, 5.23473740e-01, 3.22689950e-01}}},


 {{{-3.02732885e-01,-5.02513230e-01,-5.15424967e-01},
   {-5.45138359e-01,-1.93097547e-01,-4.72880483e-01},
   { 2.49249890e-01, 6.41409039e-01, 5.73234499e-01}},

  {{-1.46892682e-01,-1.67489901e-01,-1.49343759e-01},
   {-1.67686805e-01,-9.24911425e-02, 8.67798850e-02},
   {-3.44843008e-02, 2.52885148e-02, 4.21193838e-02}},

  {{ 2.12399080e-01, 2.16915891e-01, 2.27597848e-01},
   { 9.16824490e-03, 2.31640622e-01, 2.38230124e-01},
   { 1.42667919e-01, 2.76093453e-01, 2.15059832e-01}},

  {{-2.77642548e-01,-1.42570600e-01,-3.79019277e-03},
   { 1.78443283e-01, 4.56189930e-01, 2.47963697e-01},
   { 8.31350312e-02,-1.05517535e-02, 2.98036426e-01}}}};
const float net0_conv1_bias[8] = { 0.2576758 , 0.08306386,-0.02664088,-0.39047974,-0.34106407,-0.2494189 ,
  0.26470917, 0.14554973};
const float net0_dense0_weight[10][32] = {{ 2.02170804e-01, 2.64467418e-01,-5.71521163e-01, 3.36814702e-01,
  -1.77358538e-01,-2.09448650e-01,-9.66019183e-02, 5.78096271e-01,
  -1.40717536e-01,-2.11385489e-01,-5.40904514e-02, 4.45869677e-02,
  -2.98994571e-01, 2.35020995e-01, 1.00083753e-01,-9.01671767e-01,
  -2.12606266e-01,-1.57948539e-01, 6.44289315e-01, 3.35507810e-01,
  -2.81577915e-01,-4.28478643e-02, 1.58774555e-01,-1.76486507e-01,
   6.77574098e-01,-2.28456154e-01, 5.80276251e-01,-2.01501966e-01,
  -1.03198990e-01,-8.02825838e-02,-1.21195711e-01, 2.67124176e-01},
 { 3.47676784e-01, 3.82117368e-03, 5.02389431e-01,-3.46661776e-01,
   2.95892358e-01, 1.48798853e-01, 5.79435332e-03, 1.25716642e-01,
   9.81582105e-02,-1.52788833e-01, 2.79582161e-02,-2.33766407e-01,
   1.40720278e-01,-9.04617086e-02,-5.01385748e-01,-3.60461622e-01,
  -4.86933291e-01,-5.04256487e-01,-2.76165903e-01,-2.29044080e-01,
  -1.11570448e-01,-5.63078895e-02,-8.67013186e-02, 4.64794934e-01,
  -9.79316905e-02, 7.89983451e-01, 7.41642248e-03, 3.93187970e-01,
   6.15796037e-02, 1.63949102e-01, 3.54580641e-01, 4.49900866e-01},
 {-6.19573772e-01,-3.32071543e-01, 3.18535507e-01, 3.17644149e-01,
  -2.28286877e-01,-2.43929237e-01, 2.03371942e-01, 4.15091991e-01,
   6.11987472e-01,-3.82425994e-01,-2.03250885e-01, 5.27624190e-01,
   2.10568339e-01, 2.49837115e-01,-1.29635021e-01,-4.59792972e-01,
   3.03896695e-01,-2.57794917e-01,-6.37137666e-02,-6.43418264e-03,
   3.30084786e-02,-3.27335238e-01, 1.79808080e-01, 3.86633903e-01,
  -5.19543111e-01, 1.00615457e-01, 5.00718355e-01,-1.42865822e-01,
   4.34517711e-01,-1.35456249e-01, 3.52105677e-01, 1.84972405e-01},
 {-2.52702981e-01, 2.88862377e-01,-3.40177357e-01, 1.18367128e-01,
  -4.37064081e-01, 2.08909661e-01,-3.11246186e-01,-5.47787309e-01,
   4.87500429e-01,-1.05033562e-01, 2.36714900e-01,-8.39688629e-02,
   2.67220765e-01, 4.51541632e-01, 1.40618652e-01, 4.24701482e-01,
  -2.32873604e-01,-2.58192152e-01, 2.95771986e-01, 6.70616090e-01,
  -1.98116943e-01, 4.28390205e-01, 2.70086080e-01,-8.48887041e-02,
  -8.97650540e-01, 2.26508692e-01,-4.50260162e-01,-2.75866061e-01,
  -1.80732965e-01,-2.99414814e-01, 1.32404029e-01,-8.45596120e-02},
 { 1.63508430e-01, 1.62342906e-01,-5.23294806e-01, 8.64651650e-02,
   3.67444873e-01, 9.66474771e-01, 5.04150651e-02, 2.71218747e-01,
  -1.06162265e-01, 1.67873323e-01,-3.38129729e-01, 8.41780752e-02,
  -3.02975893e-01,-1.05141556e+00, 3.26868832e-01, 6.04424119e-01,
  -3.26975882e-01, 6.48333579e-02,-6.12550117e-02,-6.52670145e-01,
  -3.12532075e-02,-2.55948603e-01,-1.22423902e-01,-1.56057596e-01,
   6.76334441e-01, 5.77250361e-01,-3.50263268e-01, 2.96428591e-01,
   1.87617600e-01,-1.85179144e-01,-6.82964265e-01, 8.27941746e-02},
 { 4.33121741e-01,-2.66836107e-01,-4.37114149e-01,-4.38245386e-01,
  -1.74284711e-01,-4.70096678e-01, 1.12133421e-01,-6.50780380e-01,
   1.94670185e-01, 8.09245765e-01, 2.31778949e-01,-9.53403115e-02,
   2.46142119e-01,-4.80470777e-01, 1.53119266e-01, 2.44589910e-01,
  -5.64602375e-01, 1.24900527e-01, 5.90860426e-01, 6.11914575e-01,
   3.48000795e-01, 3.34048234e-02, 4.05911021e-02,-1.14810683e-01,
   5.08254826e-01,-1.65639028e-01,-2.05841288e-01, 2.73899972e-01,
   4.40849476e-02, 3.86100680e-01, 4.22121018e-01, 1.70652360e-01},
 { 2.83541232e-01,-2.94446737e-01,-1.48599952e-01,-9.61911678e-02,
  -4.50969189e-02,-4.84857053e-01, 1.70091018e-01, 4.75593239e-01,
  -7.60945976e-02, 5.41766167e-01,-2.52797246e-01,-2.72072047e-01,
  -3.78486544e-01,-1.17314720e+00,-1.13428898e-01, 2.20534980e-01,
  -4.98562530e-02,-7.81180859e-02, 3.63088131e-01, 4.81182396e-01,
  -4.36749816e-01,-3.93090397e-01, 3.62692684e-01, 4.84810323e-01,
   5.66293597e-01, 4.49519381e-02, 6.17846251e-01,-2.38078445e-01,
  -7.42030501e-01, 8.51373196e-01,-1.46896124e-01,-4.86283898e-02},
 {-1.83658656e-02, 4.65097159e-01, 3.50675941e-01, 6.46320939e-01,
  -1.94682896e-01,-1.43497393e-01,-2.03013092e-01,-1.11583740e-01,
   4.17285003e-02, 1.87101752e-01, 7.52804950e-02,-1.09686586e-03,
   5.72975755e-01, 6.81502938e-01, 2.71015316e-01,-4.92375076e-01,
   7.75817707e-02, 2.60004640e-01, 3.68902227e-04,-3.72829318e-01,
   1.61615163e-01,-9.41546485e-02,-7.28538632e-01,-6.79337084e-01,
  -5.99918127e-01,-2.08720332e-03, 3.93715575e-02, 3.39986503e-01,
   3.32791656e-01, 4.37398493e-01,-2.16805130e-01, 2.11770177e-01},
 {-2.98616886e-01, 7.52988756e-02, 4.84674066e-01,-3.97492439e-01,
  -3.34925264e-01, 7.67845511e-01,-2.77981967e-01,-7.66398013e-01,
   1.72152236e-01,-1.33693293e-01, 4.03769128e-03,-1.88506871e-01,
  -6.44885600e-02,-9.03780162e-02, 7.54209980e-02, 1.93509057e-01,
   6.04984105e-01,-1.32639974e-01, 5.58286011e-02, 6.00659311e-01,
  -1.45648167e-01, 7.70453289e-02,-1.03949346e-01, 3.55029017e-01,
   5.46067692e-02,-4.15910661e-01, 3.31332564e-01, 3.05345673e-02,
  -1.58543274e-01,-2.22426519e-01,-3.78676593e-01,-9.49488133e-02},
 { 2.33529508e-01, 4.82638329e-01,-6.98427141e-01, 3.04963235e-02,
  -2.62968570e-01, 2.40042761e-01, 5.29340468e-03,-1.05948970e-01,
  -6.19616024e-02,-3.61253649e-01, 2.43616283e-01,-3.59195441e-01,
  -6.53350532e-01, 4.46571350e-01, 1.60494700e-01, 2.58052140e-01,
   3.34174037e-01, 4.03764486e-01,-2.45983273e-01,-4.53498453e-01,
   4.67199177e-01, 4.08793241e-01,-2.19239622e-01,-9.30177569e-01,
   5.73691726e-01,-9.61081833e-02,-3.68059874e-01, 4.06304032e-01,
   9.55996066e-02, 2.42420048e-01,-3.70400786e-01,-1.98829204e-01}};
const float net0_dense0_bias[10] = {-0.00221019, 0.21204479,-0.17400925,-0.17517644, 0.14496751,-0.11580661,
  0.05622093, 0.00747293, 0.03341543, 0.01308156};
