const float mobilenet0_conv0_weight[8][3][3][3] = {{{{ 1.66379142e-08, 9.50185974e-09,-1.33485605e-08},
   { 2.02010106e-08, 1.05725704e-08, 7.34650119e-09},
   { 8.15759282e-09,-3.63372665e-09,-1.66347580e-09}},

  {{ 4.51321336e-09, 8.68003724e-11,-7.85471865e-09},
   { 1.88960740e-08, 1.16681651e-08,-6.43220899e-09},
   { 5.30649136e-10,-3.56940588e-09,-1.16390773e-08}},

  {{ 2.73785332e-08, 1.54674904e-08,-4.04686551e-09},
   { 1.85486488e-08, 2.37798190e-08, 2.34075404e-09},
   {-2.59480260e-09,-1.99525929e-09,-3.52531915e-09}}},


 {{{ 1.81860819e-01, 2.62769014e-01, 2.22161427e-01},
   { 1.85025007e-01, 1.87415153e-01, 1.78109527e-01},
   { 1.34841979e-01, 2.25526199e-01, 2.38381654e-01}},

  {{-3.00065726e-01,-6.00269496e-01,-6.55490339e-01},
   {-5.33733070e-01,-8.98640633e-01,-9.58938241e-01},
   {-4.27114040e-01,-7.50661135e-01,-7.81102121e-01}},

  {{ 1.02373727e-01, 3.72787982e-01, 4.95368063e-01},
   { 3.20811778e-01, 6.84029162e-01, 7.81845570e-01},
   { 2.93244213e-01, 5.11984289e-01, 5.72392046e-01}}},


 {{{ 1.02241174e-07, 7.49269518e-08, 4.07626146e-08},
   { 1.78301377e-07, 1.71268510e-07, 1.97106065e-09},
   { 1.47053001e-07, 1.32591126e-07, 4.14853361e-08}},

  {{ 1.50097193e-07, 8.84249332e-08, 4.63342609e-08},
   { 3.28063607e-07, 2.78565864e-07, 6.64183872e-08},
   { 2.26799457e-07, 2.35546054e-07, 4.06031937e-08}},

  {{-2.31424746e-08,-7.80486360e-08,-6.44227285e-08},
   { 2.17369831e-07, 2.01871003e-07, 2.49551828e-08},
   { 1.29121204e-07, 1.13380231e-07,-1.43066368e-08}}},


 {{{-2.02133924e-01,-6.84754372e-01,-8.03904533e-01},
   {-1.81054339e-01,-8.79184842e-01,-1.02314484e+00},
   {-1.69340611e-01,-6.61686003e-01,-7.62271047e-01}},

  {{ 2.74908334e-01, 5.19256055e-01, 5.59011281e-01},
   { 2.35770255e-01, 4.57416117e-01, 5.35099089e-01},
   { 2.57113725e-01, 4.67857569e-01, 4.82865274e-01}},

  {{-6.62726834e-02, 1.50048628e-01, 2.46863514e-01},
   {-8.61701295e-02, 4.03622568e-01, 4.77846831e-01},
   {-9.58130211e-02, 1.98037982e-01, 2.70641565e-01}}},


 {{{-1.86596308e-02, 1.90891728e-01,-1.42212138e-01},
   {-1.51081428e-01, 4.06004876e-01,-2.79660583e-01},
   {-6.21086098e-02, 3.32284182e-01,-2.71587998e-01}},

  {{-2.62062438e-02, 3.28421205e-01,-2.60955244e-01},
   {-2.85584420e-01, 9.81525302e-01,-7.41033137e-01},
   {-1.05381146e-01, 5.99737227e-01,-4.41652507e-01}},

  {{ 8.55358597e-03, 7.43250921e-02,-3.50528024e-02},
   {-4.40880917e-02, 1.43612012e-01,-1.51714280e-01},
   {-2.25727838e-02, 1.16329908e-01,-7.28999153e-02}}},


 {{{ 2.56397598e-05, 1.29152695e-05, 9.65463278e-06},
   { 5.88858056e-05,-7.47119120e-05,-9.66130610e-05},
   { 7.86075543e-05,-5.64830771e-05,-8.76087070e-05}},

  {{-3.21762454e-05,-1.94466866e-05,-1.95145312e-05},
   {-1.49032940e-05,-9.84561557e-05,-9.69637622e-05},
   {-4.48216524e-05,-1.14732473e-04,-1.38163276e-04}},

  {{-2.11394818e-05, 1.21346175e-05, 5.24941834e-06},
   {-6.36025561e-06,-6.23314700e-05,-4.37153794e-05},
   {-2.74923900e-06,-3.83147235e-05,-6.08378032e-05}}},


 {{{-5.45876189e-09,-2.08094009e-09,-1.31048257e-08},
   {-9.12024145e-09,-9.09288023e-09,-1.27767370e-08},
   {-1.85756885e-08,-1.53453339e-08,-2.12635931e-09}},

  {{-8.32188451e-09,-1.48940629e-08,-8.08309242e-09},
   {-1.25727997e-08,-5.26253130e-09,-1.68176921e-08},
   {-1.53685491e-08,-1.29382247e-08,-1.08195541e-08}},

  {{ 1.57837809e-09,-4.55261295e-09,-2.56810084e-09},
   {-1.65669478e-10,-7.34136263e-09,-3.99619715e-09},
   {-8.62486171e-09,-4.01200018e-10, 2.43863951e-09}}},


 {{{-8.37091450e-03,-1.21916167e-01,-1.88792020e-01},
   {-7.91335702e-02,-2.37075061e-01,-4.34809923e-01},
   {-3.74353938e-02,-1.92278519e-01,-3.40320230e-01}},

  {{-1.48732802e-02,-1.94583952e-01,-3.39302808e-01},
   {-1.38129070e-01,-4.49929178e-01,-8.53596270e-01},
   {-5.98779097e-02,-2.68722087e-01,-4.87423629e-01}},

  {{-2.58935411e-02,-2.56852247e-02,-8.74935463e-02},
   {-1.17807034e-02,-8.10152888e-02,-1.92543715e-01},
   {-3.93283069e-02,-7.10823610e-02,-1.44737765e-01}}}};
const float batch_norm0_gamma_mul_div_expand[8][1][1] = {{{-1.0629122e-06}},

 {{ 5.0980527e-02}},

 {{-3.0565952e-05}},

 {{ 3.9690018e-02}},

 {{-1.6820006e-01}},

 {{ 2.7015267e-02}},

 {{ 7.7891209e-06}},

 {{ 7.5219423e-02}}};
const float batch_norm0_add_beta_expand[8][1][1] = {{{-5.3986501e-08}},

 {{ 7.2260433e-01}},

 {{-9.1695313e-07}},

 {{ 8.6087114e-01}},

 {{ 8.4577399e-01}},

 {{-4.1514382e-04}},

 {{ 3.6275928e-08}},

 {{ 1.0856853e+00}}};
